{"learner":{"attributes":{},"feature_names":[],"feature_types":[],"gradient_booster":{"model":{"gbtree_model_param":{"num_parallel_tree":"1","num_trees":"50"},"iteration_indptr":[0,1,2,3,4,5,6,7,8,9,10,11,12,13,14,15,16,17,18,19,20,21,22,23,24,25,26,27,28,29,30,31,32,33,34,35,36,37,38,39,40,41,42,43,44,45,46,47,48,49,50],"tree_info":[0,0,0,0,0,0,0,0,0,0,0,0,0,0,0,0,0,0,0,0,0,0,0,0,0,0,0,0,0,0,0,0,0,0,0,0,0,0,0,0,0,0,0,0,0,0,0,0,0,0],"trees":[{"base_weights":[-9.3941246E-8,1.1936735E0,-2.369796E0,1.4186951E0,-1.6882651E0,1.1055535E-2,-2.5256354E-1,1.4744914E0,-2.1189794E-2,-6.5913424E-3,-2.0942883E-1,1.5463917E-1,7.674655E-2],"categories":[],"categories_nodes":[],"categories_segments":[],"categories_sizes":[],"default_left":[0,0,0,0,0,0,0,0,0,0,0,0,0],"id":0,"left_children":[1,3,5,7,9,-1,-1,11,-1,-1,-1,-1,-1],"loss_changes":[3.0615292E2,4.9070618E1,1.4292664E1,6.435959E0,3.5964546E0,0E0,0E0,2.1278687E0,0E0,0E0,0E0,0E0,0E0],"parents":[2147483647,0,0,1,1,2,2,3,3,4,4,7,7],"right_children":[2,4,6,8,10,-1,-1,12,-1,-1,-1,-1,-1],"split_conditions":[1.424E-1,9.67E2,1.485E1,4.314E1,1.935E-1,1.1055535E-2,-2.5256354E-1,2.247E1,-2.1189794E-2,-6.5913424E-3,-2.0942883E-1,1.5463917E-1,7.674655E-2],"split_indices":[27,23,20,13,26,0,0,1,0,0,0,0,0],"split_type":[0,0,0,0,0,0,0,0,0,0,0,0,0],"sum_hessian":[1.0622857E2,7.097469E1,3.5253876E1,6.6305305E1,4.669388E0,2.1012244E0,3.3152653E1,6.420408E1,2.1012244E0,1.167347E0,3.5020406E0,5.7199997E1,7.0040812E0],"tree_param":{"num_deleted":"0","num_feature":"30","num_nodes":"13","size_leaf_vector":"1"}},{"base_weights":[1.8694798E-3,1.2500914E0,-1.8524249E0,1.4063241E0,-6.8898666E-1,3.6686453E-1,-2.0671859E0,1.4373308E0,-9.237081E-3,8.7398164E-2,-1.4151939E0,1.091084E-1,-9.613953E-2,-1.357983E-1,-2.2387509E-1,1.452118E-1,3.704555E-2,-4.49973E-2,-1.6584405E-1,1.00216344E-1,-1.3783807E-1],"categories":[],"categories_nodes":[],"categories_segments":[],"categories_sizes":[],"default_left":[0,0,0,0,0,0,0,0,0,0,0,0,0,0,0,0,0,0,0,0,0],"id":1,"left_children":[1,3,5,7,9,11,13,15,-1,-1,17,-1,-1,19,-1,-1,-1,-1,-1,-1,-1],"loss_changes":[2.485974E2,2.0415894E1,2.1354126E1,2.908638E0,7.4314036E0,5.5335717E0,1.2801315E1,3.862915E-1,0E0,0E0,2.1825409E-1,0E0,0E0,7.4491777E0,0E0,0E0,0E0,0E0,0E0,0E0,0E0],"parents":[2147483647,0,0,1,1,2,2,3,3,4,4,5,5,6,6,7,7,10,10,13,13],"right_children":[2,4,6,8,10,12,14,16,-1,-1,18,-1,-1,20,-1,-1,-1,-1,-1,-1,-1],"split_conditions":[5.074E-2,1.684E1,1.022E2,4.106E0,1.573E1,2.548E1,1.929E1,1.665E-1,-9.237081E-3,8.7398164E-2,1.954E1,1.091084E-1,-9.613953E-2,8.591E-2,-2.2387509E-1,1.452118E-1,3.704555E-2,-4.49973E-2,-1.6584405E-1,1.00216344E-1,-1.3783807E-1],"split_indices":[7,20,22,12,1,21,21,24,0,0,1,0,0,7,0,0,0,0,0,0,0],"split_type":[0,0,0,0,0,0,0,0,0,0,0,0,0,0,0,0,0,0,0,0,0],"sum_hessian":[1.0540489E2,6.3192547E1,4.221235E1,5.8734978E1,4.4575653E0,3.6619904E0,3.8550358E1,5.7584545E1,1.1504332E0,1.3495435E0,3.108022E0,2.485409E0,1.1765814E0,3.2912076E0,3.525915E1,5.6441162E1,1.1433845E0,1.1992341E0,1.9087878E0,1.8189183E0,1.4722892E0],"tree_param":{"num_deleted":"0","num_feature":"30","num_nodes":"21","size_leaf_vector":"1"}},{"base_weights":[2.7933116E-3,1.1808268E0,-1.6482503E0,1.3353645E0,-6.3868237E-1,-3.1781465E-1,-1.9537657E0,1.3663657E0,-8.730338E-3,8.3836704E-2,-1.303832E0,1.1262133E-1,-1.2016197E0,-2.0031114E-1,-3.17219E-2,1.3816303E-1,3.1973474E-2,-1.539384E-1,-3.9986413E-2,4.4181697E-2,-1.7328358E-1],"categories":[],"categories_nodes":[],"categories_segments":[],"categories_sizes":[],"default_left":[0,0,0,0,0,0,0,0,0,0,0,0,0,0,0,0,0,0,0,0,0],"id":2,"left_children":[1,3,5,7,9,11,13,15,-1,-1,17,-1,19,-1,-1,-1,-1,-1,-1,-1,-1],"loss_changes":[2.0456892E2,1.8111885E1,1.7181122E1,2.6287766E0,6.478516E0,1.3315958E1,2.225235E0,4.4885254E-1,0E0,0E0,2.725749E-1,0E0,6.2642317E0,0E0,0E0,0E0,0E0,0E0,0E0,0E0,0E0],"parents":[2147483647,0,0,1,1,2,2,3,3,4,4,5,5,6,6,7,7,10,10,12,12],"right_children":[2,4,6,8,10,12,14,16,-1,-1,18,-1,20,-1,-1,-1,-1,-1,-1,-1,-1],"split_conditions":[5.074E-2,1.684E1,1.466E-1,4.106E0,1.573E1,2.288E1,9.96E-2,1.178E-1,-8.730338E-3,8.3836704E-2,1.807E1,1.1262133E-1,1.354E1,-2.0031114E-1,-3.17219E-2,1.3816303E-1,3.1973474E-2,-1.539384E-1,-3.9986413E-2,4.4181697E-2,-1.7328358E-1],"split_indices":[7,20,27,12,1,21,16,29,0,0,20,0,0,0,0,0,0,0,0,0,0],"split_type":[0,0,0,0,0,0,0,0,0,0,0,0,0,0,0,0,0,0,0,0,0],"sum_hessian":[1.0317697E2,6.0380077E1,4.2796894E1,5.58985E1,4.48158E0,8.373383E0,3.442351E1,5.4745125E1,1.1533737E0,1.3106643E0,3.1709156E0,3.0749755E0,5.298407E0,3.3198517E1,1.2249959E0,5.3642696E1,1.1024271E0,1.957833E0,1.2130824E0,1.3353847E0,3.9630222E0],"tree_param":{"num_deleted":"0","num_feature":"30","num_nodes":"21","size_leaf_vector":"1"}},{"base_weights":[2.7763813E-3,1.121616E0,-1.4975295E0,1.2752016E0,-5.9440446E-1,3.3207807E-1,-1.6679691E0,1.3070911E0,-1.0906911E-2,6.1368335E-2,-1.330231E-1,1.00928284E-1,-8.3630584E-2,-1.0790489E-1,-1.8002766E-1,1.3224797E-1,2.993312E-2,9.102633E-2,-1.1619692E-1],"categories":[],"categories_nodes":[],"categories_segments":[],"categories_sizes":[],"default_left":[0,0,0,0,0,0,0,0,0,0,0,0,0,0,0,0,0,0,0],"id":3,"left_children":[1,3,5,7,9,11,13,15,-1,-1,-1,-1,-1,17,-1,-1,-1,-1,-1],"loss_changes":[1.7110814E2,1.6146797E1,1.4132889E1,2.522377E0,5.6865582E0,4.4400587E0,8.062134E0,4.2255402E-1,0E0,0E0,0E0,0E0,0E0,5.555469E0,0E0,0E0,0E0,0E0,0E0],"parents":[2147483647,0,0,1,1,2,2,3,3,4,4,5,5,6,6,7,7,13,13],"right_children":[2,4,6,8,10,12,14,16,-1,-1,-1,-1,-1,18,-1,-1,-1,-1,-1],"split_conditions":[5.074E-2,1.684E1,1.022E2,4.276E1,1.83E1,2.548E1,1.929E1,1.665E-1,-1.0906911E-2,6.1368335E-2,-1.330231E-1,1.00928284E-1,-8.3630584E-2,8.591E-2,-1.8002766E-1,1.3224797E-1,2.993312E-2,9.102633E-2,-1.1619692E-1],"split_indices":[7,20,22,13,1,21,21,24,0,0,0,0,0,7,0,0,0,0,0],"split_type":[0,0,0,0,0,0,0,0,0,0,0,0,0,0,0,0,0,0,0],"sum_hessian":[9.9934296E1,5.7389214E1,4.2545082E1,5.2910553E1,4.478662E0,3.5447798E0,3.90003E1,5.1773594E1,1.1369585E0,1.7581334E0,2.7205284E0,2.3302944E0,1.2144855E0,3.1909337E0,3.580937E1,5.0687294E1,1.086302E0,1.6924986E0,1.4984353E0],"tree_param":{"num_deleted":"0","num_feature":"30","num_nodes":"19","size_leaf_vector":"1"}},{"base_weights":[3.0747394E-3,1.0704347E0,-1.3803488E0,1.2232876E0,-5.4939014E-1,-2.5265348E-1,-1.636027E0,1.2558645E0,-1.0677047E-2,7.823203E-2,-1.1257325E0,1.03567556E-1,-1.0050263E0,-1.6812114E-1,-2.1203695E-2,1.2722814E-1,2.4392916E-2,-1.3633674E-1,-3.0135712E-2,4.0589683E-2,-1.4552253E-1],"categories":[],"categories_nodes":[],"categories_segments":[],"categories_sizes":[],"default_left":[0,0,0,0,0,0,0,0,0,0,0,0,0,0,0,0,0,0,0,0,0],"id":4,"left_children":[1,3,5,7,9,11,13,15,-1,-1,17,-1,19,-1,-1,-1,-1,-1,-1,-1,-1],"loss_changes":[1.4472957E2,1.4370483E1,1.1894783E1,2.3380356E0,5.0718656E0,9.83474E0,1.870781E0,5.1576996E-1,0E0,0E0,4.1608286E-1,0E0,4.55114E0,0E0,0E0,0E0,0E0,0E0,0E0,0E0,0E0],"parents":[2147483647,0,0,1,1,2,2,3,3,4,4,5,5,6,6,7,7,10,10,12,12],"right_children":[2,4,6,8,10,12,14,16,-1,-1,18,-1,20,-1,-1,-1,-1,-1,-1,-1,-1],"split_conditions":[5.074E-2,1.684E1,1.466E-1,4.106E0,1.573E1,2.288E1,9.368E-3,1.348E-1,-1.0677047E-2,7.823203E-2,9.233E-3,1.03567556E-1,1.354E1,-1.6812114E-1,-2.1203695E-2,1.2722814E-1,2.4392916E-2,-1.3633674E-1,-3.0135712E-2,4.0589683E-2,-1.4552253E-1],"split_indices":[7,20,27,12,1,21,19,5,0,0,17,0,0,0,0,0,0,0,0,0,0],"split_type":[0,0,0,0,0,0,0,0,0,0,0,0,0,0,0,0,0,0,0,0,0],"sum_hessian":[9.601404E1,5.432592E1,4.1688118E1,4.9865246E1,4.460674E0,8.072346E0,3.3615772E1,4.872755E1,1.137695E0,1.2394298E0,3.2212439E0,2.8373137E0,5.235032E0,3.2406837E1,1.2089341E0,4.7696484E1,1.0310688E0,1.9929395E0,1.2283044E0,1.2901402E0,3.9448922E0],"tree_param":{"num_deleted":"0","num_feature":"30","num_nodes":"21","size_leaf_vector":"1"}},{"base_weights":[2.6253834E-3,1.0248334E0,-1.2871006E0,1.1777546E0,-5.143395E-1,-3.554375E-1,-1.5704845E-1,1.2117285E0,-1.2571155E-2,7.5357586E-2,-1.0529848E0,9.011274E-1,-1.3518617E-1,1.2483703E-1,5.0447058E-2,-1.2836848E-1,-2.7066577E-2,1.1131348E-1,-1.6107589E-4],"categories":[],"categories_nodes":[],"categories_segments":[],"categories_sizes":[],"default_left":[0,0,0,0,0,0,0,0,0,0,0,0,0,0,0,0,0,0,0],"id":5,"left_children":[1,3,5,7,9,11,-1,13,-1,-1,15,17,-1,-1,-1,-1,-1,-1,-1],"loss_changes":[1.2348279E2,1.290377E1,1.0375725E1,2.2704697E0,4.4937615E0,1.4930098E1,0E0,5.8073425E-1,0E0,0E0,4.1412544E-1,1.0436025E0,0E0,0E0,0E0,0E0,0E0,0E0,0E0],"parents":[2147483647,0,0,1,1,2,2,3,3,4,4,5,5,7,7,10,10,11,11],"right_children":[2,4,6,8,10,12,-1,14,-1,-1,16,18,-1,-1,-1,-1,-1,-1,-1],"split_conditions":[5.074E-2,1.684E1,1.146E2,4.276E1,1.573E1,2.548E1,-1.5704845E-1,3.321E1,-1.2571155E-2,7.5357586E-2,1.807E1,3.124E-1,-1.3518617E-1,1.2483703E-1,5.0447058E-2,-1.2836848E-1,-2.7066577E-2,1.1131348E-1,-1.6107589E-4],"split_indices":[7,20,22,13,1,21,0,21,0,0,20,28,0,0,0,0,0,0,0],"split_type":[0,0,0,0,0,0,0,0,0,0,0,0,0,0,0,0,0,0,0],"sum_hessian":[9.166281E1,5.1249214E1,4.0413597E1,4.6831215E1,4.417998E0,9.95137E0,3.0462229E1,4.5710194E1,1.1210202E0,1.1983007E0,3.219697E0,4.443467E0,5.5079036E0,4.2731274E1,2.9789207E0,1.9915369E0,1.2281601E0,3.409649E0,1.0338181E0],"tree_param":{"num_deleted":"0","num_feature":"30","num_nodes":"19","size_leaf_vector":"1"}},{"base_weights":[2.3564058E-3,9.841283E-1,-1.2105454E0,1.1373925E0,-4.8275727E-1,3.001191E-1,-1.3547144E0,1.1724958E0,-1.2230575E-2,5.5998545E-2,-1.0953162E-1,9.023221E-2,-6.642216E-2,-6.414989E-2,-1.464214E0,2.0643486E-2,1.1936213E-1,8.032256E-2,-9.37235E-2,-4.212117E-2,-1.4887688E-1],"categories":[],"categories_nodes":[],"categories_segments":[],"categories_sizes":[],"default_left":[0,0,0,0,0,0,0,0,0,0,0,0,0,0,0,0,0,0,0,0,0],"id":6,"left_children":[1,3,5,7,9,11,13,15,-1,-1,-1,-1,-1,17,19,-1,-1,-1,-1,-1,-1],"loss_changes":[1.06095276E2,1.1618904E1,9.087162E0,2.1279182E0,4.0369635E0,3.0912611E0,5.073509E0,6.465874E-1,0E0,0E0,0E0,0E0,0E0,3.710567E0,2.3498535E-1,0E0,0E0,0E0,0E0,0E0,0E0],"parents":[2147483647,0,0,1,1,2,2,3,3,4,4,5,5,6,6,7,7,13,13,14,14],"right_children":[2,4,6,8,10,12,14,16,-1,-1,-1,-1,-1,18,20,-1,-1,-1,-1,-1,-1],"split_conditions":[5.074E-2,1.684E1,1.022E2,4.106E0,1.83E1,2.548E1,1.929E1,3.338E-3,-1.2230575E-2,5.5998545E-2,-1.0953162E-1,9.023221E-2,-6.642216E-2,8.591E-2,8.369E-2,2.0643486E-2,1.1936213E-1,8.032256E-2,-9.37235E-2,-4.212117E-2,-1.4887688E-1],"split_indices":[7,20,22,12,1,21,21,14,0,0,0,0,0,7,4,0,0,0,0,0,0],"split_type":[0,0,0,0,0,0,0,0,0,0,0,0,0,0,0,0,0,0,0,0,0],"sum_hessian":[8.709587E1,4.8238384E1,3.8857483E1,4.3878464E1,4.3599205E0,3.291021E0,3.5566463E1,4.275622E1,1.1222428E0,1.6451875E0,2.7147331E0,2.0654926E0,1.2255285E0,2.905698E0,3.2660767E1,1.145478E0,4.1610744E1,1.4977535E0,1.4079447E0,1.1687814E0,3.1491983E1],"tree_param":{"num_deleted":"0","num_feature":"30","num_nodes":"21","size_leaf_vector":"1"}},{"base_weights":[1.7185574E-3,1.0747463E0,-1.0107017E0,1.1435128E0,-3.1751644E-2,6.3015133E-1,-1.1946262E0,1.185023E-1,-1.7996436E-2,1.01593666E-1,-4.34333E-2,1.5347159E-1,-1.3311739E0,8.958093E-2,-8.96174E-2,1.0550518E-3,-1.3878457E-1],"categories":[],"categories_nodes":[],"categories_segments":[],"categories_sizes":[],"default_left":[0,0,0,0,0,0,0,0,0,0,0,0,0,0,0,0,0],"id":7,"left_children":[1,3,5,7,-1,9,11,-1,-1,-1,-1,13,15,-1,-1,-1,-1],"loss_changes":[9.171973E1,4.2872047E0,1.3863338E1,2.3709488E0,0E0,2.5082536E0,7.45866E0,0E0,0E0,0E0,0E0,4.325671E0,2.7434692E0,0E0,0E0,0E0,0E0],"parents":[2147483647,0,0,1,1,2,2,3,3,5,5,6,6,11,11,12,12],"right_children":[2,4,6,8,-1,10,12,-1,-1,-1,-1,14,16,-1,-1,-1,-1],"split_conditions":[1.017E2,5.669E-2,2.085E-1,4.009E1,-3.1751644E-2,1.954E1,1.962E1,1.185023E-1,-1.7996436E-2,1.01593666E-1,-4.34333E-2,7.34E-2,1.028E-1,8.958093E-2,-8.96174E-2,1.0550518E-3,-1.3878457E-1],"split_indices":[22,7,26,13,0,1,21,0,0,0,0,7,24,0,0,0,0],"split_type":[0,0,0,0,0,0,0,0,0,0,0,0,0,0,0,0,0],"sum_hessian":[8.242897E1,3.998682E1,4.2442154E1,3.827501E1,1.7118107E0,4.0333285E0,3.8408825E1,3.721247E1,1.0625355E0,2.9939003E0,1.0394282E0,3.5211868E0,3.4887638E1,2.148365E0,1.3728216E0,1.4468484E0,3.344079E1],"tree_param":{"num_deleted":"0","num_feature":"30","num_nodes":"17","size_leaf_vector":"1"}},{"base_weights":[2.2895178E-3,9.154805E-1,-1.0939701E0,1.0696423E0,-4.3342343E-1,-2.7018985E-1,-1.3536471E-1,1.1080686E0,-1.4028834E-2,6.757173E-2,-8.874251E-1,8.35606E-1,-1.1405512E-1,1.15198255E-1,3.564343E-2,-1.1189637E-1,-1.7326627E-2,1.016228E-1,1.0300552E-2],"categories":[],"categories_nodes":[],"categories_segments":[],"categories_sizes":[],"default_left":[0,0,0,0,0,0,0,0,0,0,0,0,0,0,0,0,0,0,0],"id":8,"left_children":[1,3,5,7,9,11,-1,13,-1,-1,15,17,-1,-1,-1,-1,-1,-1,-1],"loss_changes":[8.00045E1,9.529686E0,7.4035225E0,1.9879494E0,3.2096655E0,1.0533331E1,0E0,8.5401535E-1,0E0,0E0,4.8574448E-1,5.518174E-1,0E0,0E0,0E0,0E0,0E0,0E0,0E0],"parents":[2147483647,0,0,1,1,2,2,3,3,4,4,5,5,7,7,10,10,11,11],"right_children":[2,4,6,8,10,12,-1,14,-1,-1,16,18,-1,-1,-1,-1,-1,-1,-1],"split_conditions":[5.074E-2,1.684E1,1.146E2,4.276E1,1.573E1,2.548E1,-1.3536471E-1,3.321E1,-1.4028834E-2,6.757173E-2,9.233E-3,1.158E-1,-1.1405512E-1,1.15198255E-1,3.564343E-2,-1.1189637E-1,-1.7326627E-2,1.016228E-1,1.0300552E-2],"split_indices":[7,20,22,13,1,21,0,21,0,0,17,4,0,0,0,0,0,0,0],"split_type":[0,0,0,0,0,0,0,0,0,0,0,0,0,0,0,0,0,0,0],"sum_hessian":[7.791663E1,4.259753E1,3.53191E1,3.8414314E1,4.1832156E0,8.954139E0,2.6364962E1,3.7313457E1,1.1008549E0,1.0731404E0,3.110075E0,3.9612696E0,4.992869E0,3.4750538E1,2.5629215E0,1.920575E0,1.1895001E0,2.8672094E0,1.0940601E0],"tree_param":{"num_deleted":"0","num_feature":"30","num_nodes":"19","size_leaf_vector":"1"}},{"base_weights":[1.8911447E-3,1.0131339E0,-9.1904944E-1,1.0848701E0,-2.8189136E-2,5.863807E-1,-1.0918088E0,1.130321E-1,-1.7284866E-2,9.585454E-2,-3.9481923E-2,1.4696114E-1,-1.2187138E0,8.324634E-2,-8.050919E-2,1.4108017E-3,-1.2743102E-1],"categories":[],"categories_nodes":[],"categories_segments":[],"categories_sizes":[],"default_left":[0,0,0,0,0,0,0,0,0,0,0,0,0,0,0,0,0],"id":9,"left_children":[1,3,5,7,-1,9,11,-1,-1,-1,-1,13,15,-1,-1,-1,-1],"loss_changes":[7.015482E1,3.6413002E0,1.0894173E1,2.1518784E0,0E0,2.0981429E0,5.794075E0,0E0,0E0,0E0,0E0,3.41872E0,2.2459488E0,0E0,0E0,0E0,0E0],"parents":[2147483647,0,0,1,1,2,2,3,3,5,5,6,6,11,11,12,12],"right_children":[2,4,6,8,-1,10,12,-1,-1,-1,-1,14,16,-1,-1,-1,-1],"split_conditions":[1.017E2,5.669E-2,2.085E-1,4.009E1,-2.8189136E-2,1.954E1,1.962E1,1.130321E-1,-1.7284866E-2,9.585454E-2,-3.9481923E-2,7.34E-2,1.028E-1,8.324634E-2,-8.050919E-2,1.4108017E-3,-1.2743102E-1],"split_indices":[22,7,26,13,0,1,21,0,0,0,0,7,24,0,0,0,0],"split_type":[0,0,0,0,0,0,0,0,0,0,0,0,0,0,0,0,0],"sum_hessian":[7.333062E1,3.4904015E1,3.8426605E1,3.3225796E1,1.6782204E0,3.7093148E0,3.4717293E1,3.216473E1,1.0610639E0,2.7060218E0,1.0032932E0,3.2114081E0,3.1505884E1,1.9400998E0,1.2713084E0,1.3917097E0,3.0114174E1],"tree_param":{"num_deleted":"0","num_feature":"30","num_nodes":"17","size_leaf_vector":"1"}},{"base_weights":[2.4211411E-3,7.7413523E-1,-1.1218729E0,1.0157984E0,-5.748907E-1,-1.191474E0,2.7225753E-2,1.0568464E0,-1.7669175E-2,7.031306E-2,-9.8134845E-1,-1.1767184E-2,-1.2421882E0,1.13562874E-1,5.0489753E-2,-1.1831912E-1,-5.2389726E-3,-2.9706825E-2,-1.2692694E-1],"categories":[],"categories_nodes":[],"categories_segments":[],"categories_sizes":[],"default_left":[0,0,0,0,0,0,0,0,0,0,0,0,0,0,0,0,0,0,0],"id":10,"left_children":[1,3,5,7,9,11,-1,13,-1,-1,15,-1,17,-1,-1,-1,-1,-1,-1],"loss_changes":[6.161566E1,1.4311937E1,3.1291962E0,1.9524841E0,4.3449206E0,1.3632317E0,0E0,9.4924927E-1,0E0,0E0,1.0172124E0,0E0,2.9768753E-1,0E0,0E0,0E0,0E0,0E0,0E0],"parents":[2147483647,0,0,1,1,2,2,3,3,4,4,5,5,7,7,10,10,12,12],"right_children":[2,4,6,8,10,12,-1,14,-1,-1,16,-1,18,-1,-1,-1,-1,-1,-1],"split_conditions":[1.418E-1,1.684E1,1.166E-1,4.855E1,1.616E1,2.137E-1,2.7225753E-2,3.012E1,-1.7669175E-2,7.031306E-2,1.35E0,-1.1767184E-2,2.56E-1,1.13562874E-1,5.0489753E-2,-1.1831912E-1,-5.2389726E-3,-2.9706825E-2,-1.2692694E-1],"split_indices":[27,20,16,13,1,10,0,21,0,0,11,0,26,0,0,0,0,0,0],"split_type":[0,0,0,0,0,0,0,0,0,0,0,0,0,0,0,0,0,0,0],"sum_hessian":[6.9014786E1,4.110904E1,2.7905748E1,3.5073093E1,6.0359473E0,2.671727E1,1.188478E0,3.4015945E1,1.0571471E0,1.2803274E0,4.75562E0,1.3546551E0,2.5362616E1,2.8841736E1,5.17421E0,3.681939E0,1.0736809E0,1.0399072E0,2.4322708E1],"tree_param":{"num_deleted":"0","num_feature":"30","num_nodes":"19","size_leaf_vector":"1"}},{"base_weights":[1.9921106E-3,9.588614E-1,-8.419603E-1,1.0342306E0,-2.5119925E-2,5.4576355E-1,-1.0070566E0,1.0850006E-1,-1.7930878E-2,-1.3755423E-2,8.4584326E-2,1.4852498E-1,-1.128951E0,7.861061E-2,-7.348778E-2,-1.5157479E-2,-1.211197E-1],"categories":[],"categories_nodes":[],"categories_segments":[],"categories_sizes":[],"default_left":[0,0,0,0,0,0,0,0,0,0,0,0,0,0,0,0,0],"id":11,"left_children":[1,3,5,7,-1,9,11,-1,-1,-1,-1,13,15,-1,-1,-1,-1],"loss_changes":[5.3972485E1,3.116314E0,8.6861515E0,2.0231724E0,0E0,1.0235695E0,4.6877785E0,0E0,0E0,0E0,0E0,2.8000505E0,2.159153E0,0E0,0E0,0E0,0E0],"parents":[2147483647,0,0,1,1,2,2,3,3,5,5,6,6,11,11,12,12],"right_children":[2,4,6,8,-1,10,12,-1,-1,-1,-1,14,16,-1,-1,-1,-1],"split_conditions":[1.017E2,5.669E-2,2.085E-1,4.106E0,-2.5119925E-2,5.318E-2,1.962E1,1.0850006E-1,-1.7930878E-2,-1.3755423E-2,8.4584326E-2,7.34E-2,1.094E-1,7.861061E-2,-7.348778E-2,-1.5157479E-2,-1.211197E-1],"split_indices":[22,7,26,12,0,9,21,0,0,0,0,7,24,0,0,0,0],"split_type":[0,0,0,0,0,0,0,0,0,0,0,0,0,0,0,0,0],"sum_hessian":[6.483495E1,3.0320995E1,3.4513958E1,2.8679958E1,1.6410378E0,3.4243882E0,3.108957E1,2.7629944E1,1.0500138E0,1.2102073E0,2.214181E0,2.945662E0,2.8143908E1,1.77484E0,1.1708221E0,2.4051452E0,2.5738762E1],"tree_param":{"num_deleted":"0","num_feature":"30","num_nodes":"17","size_leaf_vector":"1"}},{"base_weights":[2.4274369E-3,7.1567255E-1,-1.0681479E0,8.916933E-1,-9.341895E-2,1.4887625E-2,-1.1646569E0,1.0533229E0,9.280154E-2,-1.8052869E-2,-1.2074902E-1,1.1047155E-1,-1.197326E-2,8.784442E-2,-7.1469165E-2],"categories":[],"categories_nodes":[],"categories_segments":[],"categories_sizes":[],"default_left":[0,0,0,0,0,0,0,0,0,0,0,0,0,0,0],"id":12,"left_children":[1,3,5,7,-1,-1,9,11,13,-1,-1,-1,-1,-1,-1],"loss_changes":[4.8012703E1,1.179159E1,3.1264324E0,4.371092E0,0E0,0E0,7.6875305E-1,1.8617878E0,5.018079E0,0E0,0E0,0E0,0E0,0E0,0E0],"parents":[2147483647,0,0,1,1,2,2,3,3,6,6,7,7,8,8],"right_children":[2,4,6,8,-1,-1,10,12,14,-1,-1,-1,-1,-1,-1],"split_conditions":[8.765E2,1.583E-1,2.177E-1,3.012E1,-9.341895E-2,1.4887625E-2,2.451E-1,5.506E-1,1.935E-1,-1.8052869E-2,-1.2074902E-1,1.1047155E-1,-1.197326E-2,8.784442E-2,-7.1469165E-2],"split_indices":[23,27,26,21,0,0,10,10,26,0,0,0,0,0,0],"split_type":[0,0,0,0,0,0,0,0,0,0,0,0,0,0,0],"sum_hessian":[6.0877075E1,3.6734863E1,2.4142212E1,3.360874E1,3.1261206E0,1.733928E0,2.2408285E1,2.7688416E1,5.920326E0,1.1521199E0,2.1256165E1,2.658209E1,1.1063256E0,2.9562275E0,2.9640985E0],"tree_param":{"num_deleted":"0","num_feature":"30","num_nodes":"15","size_leaf_vector":"1"}},{"base_weights":[1.0391584E-3,7.8503174E-1,-9.112168E-1,9.403395E-1,-3.1713253E-1,-1.9100907E-1,-1.16303675E-1,9.90258E-1,-1.8425742E-2,3.2448225E-2,-9.159754E-2,7.6135814E-1,-9.480683E-2,1.0473996E-1,2.0783229E-2,8.9074634E-2,1.8097896E-2],"categories":[],"categories_nodes":[],"categories_segments":[],"categories_sizes":[],"default_left":[0,0,0,0,0,0,0,0,0,0,0,0,0,0,0,0,0],"id":13,"left_children":[1,3,5,7,9,11,-1,13,-1,-1,-1,15,-1,-1,-1,-1,-1],"loss_changes":[4.2206932E1,5.7308693E0,4.72476E0,1.7582512E0,2.090646E0,6.6793523E0,0E0,9.909687E-1,0E0,0E0,0E0,1.5524292E-1,0E0,0E0,0E0,0E0,0E0],"parents":[2147483647,0,0,1,1,2,2,3,3,4,4,5,5,7,7,11,11],"right_children":[2,4,6,8,10,12,-1,14,-1,-1,-1,16,-1,-1,-1,-1,-1],"split_conditions":[5.074E-2,1.684E1,1.146E2,4.106E0,1.954E1,2.548E1,-1.16303675E-1,3.337E1,-1.8425742E-2,3.2448225E-2,-9.159754E-2,1.46E-1,-9.480683E-2,1.0473996E-1,2.0783229E-2,8.9074634E-2,1.8097896E-2],"split_indices":[7,20,22,12,1,21,0,21,0,0,0,24,0,0,0,0,0],"split_type":[0,0,0,0,0,0,0,0,0,0,0,0,0,0,0,0,0],"sum_hessian":[5.7013824E1,3.0737492E1,2.6276333E1,2.7069857E1,3.6676335E0,7.262894E0,1.9013437E1,2.603373E1,1.0361278E0,1.9917624E0,1.6758713E0,3.2140265E0,4.0488677E0,2.3946249E1,2.08748E0,2.1908402E0,1.0231861E0],"tree_param":{"num_deleted":"0","num_feature":"30","num_nodes":"17","size_leaf_vector":"1"}},{"base_weights":[1.9659748E-4,8.8876635E-1,-7.5811124E-1,9.692952E-1,-2.1856492E-2,-8.745339E-2,-1.0817354E0,1.0295304E0,-2.0419149E-2,7.3189884E-1,-5.934982E-1,-2.6907125E-2,-1.1446368E-1,1.0652997E-1,3.9422456E-2,8.4210746E-2,1.7026251E-2,1.14605315E-2,-9.297708E-2],"categories":[],"categories_nodes":[],"categories_segments":[],"categories_sizes":[],"default_left":[0,0,0,0,0,0,0,0,0,0,0,0,0,0,0,0,0,0,0],"id":14,"left_children":[1,3,5,7,-1,9,11,13,-1,15,17,-1,-1,-1,-1,-1,-1,-1,-1],"loss_changes":[3.730344E1,2.4849796E0,6.388548E0,1.9029427E0,0E0,4.916685E0,7.1744347E-1,1.0140991E-1,0E0,1.3981676E-1,1.829356E0,0E0,0E0,0E0,0E0,0E0,0E0,0E0,0E0],"parents":[2147483647,0,0,1,1,2,2,3,3,5,5,6,6,7,7,9,9,10,10],"right_children":[2,4,6,8,-1,10,12,14,-1,16,18,-1,-1,-1,-1,-1,-1,-1,-1],"split_conditions":[1.017E2,5.669E-2,1.453E-1,4.009E1,-2.1856492E-2,1.83E1,9.029E-2,3.321E1,-2.0419149E-2,1.739E1,1.677E1,-2.6907125E-2,-1.1446368E-1,1.0652997E-1,3.9422456E-2,8.4210746E-2,1.7026251E-2,1.14605315E-2,-9.297708E-2],"split_indices":[22,7,27,13,0,1,4,21,0,20,20,0,0,0,0,0,0,0,0],"split_type":[0,0,0,0,0,0,0,0,0,0,0,0,0,0,0,0,0,0,0],"sum_hessian":[5.3362045E1,2.4491436E1,2.8870607E1,2.2947289E1,1.5441474E0,9.810399E0,1.906021E1,2.1943594E1,1.0036944E0,3.5752661E0,6.2351327E0,1.7484537E0,1.7311754E1,2.0133215E1,1.8103805E0,2.57132E0,1.0039461E0,2.2198627E0,4.01527E0],"tree_param":{"num_deleted":"0","num_feature":"30","num_nodes":"19","size_leaf_vector":"1"}},{"base_weights":[1.11176945E-4,6.564888E-1,-9.668703E-1,8.998515E-1,-4.572748E-1,-1.0500768E0,3.071374E-2,-1.2214544E-2,9.584521E-1,6.2439848E-2,-8.0796283E-1,-7.0773326E-3,-1.1066214E-1,1.06269196E-1,3.7241653E-2,-9.98609E-2,-7.57742E-3],"categories":[],"categories_nodes":[],"categories_segments":[],"categories_sizes":[],"default_left":[0,0,0,0,0,0,0,0,0,0,0,0,0,0,0,0,0],"id":15,"left_children":[1,3,5,7,9,11,-1,-1,13,-1,15,-1,-1,-1,-1,-1,-1],"loss_changes":[3.3025036E1,8.812278E0,2.552702E0,1.6605949E0,2.864269E0,1.0277748E0,0E0,0E0,1.1001759E0,0E0,6.409466E-1,0E0,0E0,0E0,0E0,0E0,0E0],"parents":[2147483647,0,0,1,1,2,2,3,3,4,4,5,5,8,8,10,10],"right_children":[2,4,6,8,10,12,-1,-1,14,-1,16,-1,-1,-1,-1,-1,-1],"split_conditions":[1.424E-1,1.684E1,1.166E-1,1.987E-1,1.616E1,2.137E-1,3.071374E-2,-1.2214544E-2,3.012E1,6.2439848E-2,1.336E0,-7.0773326E-3,-1.1066214E-1,1.06269196E-1,3.7241653E-2,-9.98609E-2,-7.57742E-3],"split_indices":[27,20,16,28,1,10,0,0,21,0,11,0,0,0,0,0,0],"split_type":[0,0,0,0,0,0,0,0,0,0,0,0,0,0,0,0,0],"sum_hessian":[5.0032047E1,2.9993708E1,2.0038342E1,2.4772795E1,5.220913E0,1.8974848E1,1.063494E0,1.2846189E0,2.3488176E1,1.0871568E0,4.133756E0,1.1587051E0,1.7816141E1,1.9250648E1,4.2375274E0,2.9910762E0,1.14268E0],"tree_param":{"num_deleted":"0","num_feature":"30","num_nodes":"17","size_leaf_vector":"1"}},{"base_weights":[2.8967258E-4,7.19553E-1,-8.362073E-1,8.7272584E-1,-2.52093E-1,-1.5969129E-1,-1.0918092E-1,9.5749867E-1,-5.736031E-4,3.199385E-2,-8.111121E-2,7.19712E-1,-8.6251274E-2,7.3915846E-3,9.991206E-2,-2.6746526E-2,2.7028931E-2,8.210129E-2,2.1969168E-2],"categories":[],"categories_nodes":[],"categories_segments":[],"categories_sizes":[],"default_left":[0,0,0,0,0,0,0,0,0,0,0,0,0,0,0,0,0,0,0],"id":16,"left_children":[1,3,5,7,9,11,-1,13,15,-1,-1,17,-1,-1,-1,-1,-1,-1,-1],"loss_changes":[2.941684E1,4.1324825E0,3.7343636E0,1.6982956E0,1.6523565E0,5.175765E0,0E0,6.949234E-1,2.9122904E-1,0E0,0E0,1.3061285E-2,0E0,0E0,0E0,0E0,0E0,0E0,0E0],"parents":[2147483647,0,0,1,1,2,2,3,3,4,4,5,5,7,7,8,8,11,11],"right_children":[2,4,6,8,10,12,-1,14,16,-1,-1,18,-1,-1,-1,-1,-1,-1,-1],"split_conditions":[5.074E-2,1.684E1,1.146E2,3.444E1,1.954E1,2.548E1,-1.0918092E-1,3.629E-3,3.211E-3,3.199385E-2,-8.111121E-2,1.389E-1,-8.6251274E-2,7.3915846E-3,9.991206E-2,-2.6746526E-2,2.7028931E-2,8.210129E-2,2.1969168E-2],"split_indices":[7,20,22,13,1,21,0,14,19,0,0,24,0,0,0,0,0,0,0],"split_type":[0,0,0,0,0,0,0,0,0,0,0,0,0,0,0,0,0,0,0],"sum_hessian":[4.689261E1,2.5288258E1,2.160435E1,2.1932558E1,3.3557E0,6.3698E0,1.52345495E1,1.9904022E1,2.0285356E0,1.869926E0,1.4857739E0,2.8187788E0,3.5510216E0,1.0202956E0,1.8883728E1,1.0280763E0,1.0004593E0,1.8101043E0,1.0086745E0],"tree_param":{"num_deleted":"0","num_feature":"30","num_nodes":"19","size_leaf_vector":"1"}},{"base_weights":[-3.2797872E-4,8.26132E-1,-6.914761E-1,9.111433E-1,-1.8837584E-2,4.7240117E-1,-8.533592E-1,-1.4285351E-2,9.905551E-1,7.295615E-2,-8.75784E-3,1.8839434E-1,-9.7462034E-1,1.0364242E-1,3.1611666E-2,6.2105328E-2,-3.6289293E-2,-7.179379E-3,-1.06732525E-1],"categories":[],"categories_nodes":[],"categories_segments":[],"categories_sizes":[],"default_left":[0,0,0,0,0,0,0,0,0,0,0,0,0,0,0,0,0,0,0],"id":17,"left_children":[1,3,5,7,-1,9,11,-1,13,-1,-1,15,17,-1,-1,-1,-1,-1,-1],"loss_changes":[2.6222303E1,1.9747591E0,5.1133823E0,1.770464E0,0E0,5.961765E-1,3.0010815E0,0E0,2.3615456E-1,0E0,0E0,9.7992474E-1,1.6090164E0,0E0,0E0,0E0,0E0,0E0,0E0],"parents":[2147483647,0,0,1,1,2,2,3,3,5,5,6,6,8,8,11,11,12,12],"right_children":[2,4,6,8,-1,10,12,-1,14,-1,-1,16,18,-1,-1,-1,-1,-1,-1],"split_conditions":[1.017E2,5.669E-2,2.085E-1,1.987E-1,-1.8837584E-2,1.931E1,1.962E1,-1.4285351E-2,3.337E1,7.295615E-2,-8.75784E-3,6.254E-2,1.094E-1,1.0364242E-1,3.1611666E-2,6.2105328E-2,-3.6289293E-2,-7.179379E-3,-1.06732525E-1],"split_indices":[22,7,26,28,0,1,21,0,21,0,0,7,24,0,0,0,0,0,0],"split_type":[0,0,0,0,0,0,0,0,0,0,0,0,0,0,0,0,0,0,0],"sum_hessian":[4.3906815E1,1.9907068E1,2.3999746E1,1.8461926E1,1.4451413E0,2.6962914E0,2.1303455E1,1.2375529E0,1.7224373E1,1.6402164E0,1.0560752E0,2.1634705E0,1.9139984E1,1.5624985E1,1.5993882E0,1.1412491E0,1.0222213E0,1.947571E0,1.7192413E1],"tree_param":{"num_deleted":"0","num_feature":"30","num_nodes":"19","size_leaf_vector":"1"}},{"base_weights":[1.7516956E-3,5.9930927E-1,-9.0256107E-1,7.657859E-1,-7.807363E-2,1.7636262E-2,-1.019596E0,9.8757744E-1,8.2179934E-2,-1.8053308E-2,-1.0697346E-1,1.3024879E-2,1.03082776E-1,7.191079E-2,-6.4991824E-2],"categories":[],"categories_nodes":[],"categories_segments":[],"categories_sizes":[],"default_left":[0,0,0,0,0,0,0,0,0,0,0,0,0,0,0],"id":18,"left_children":[1,3,5,7,-1,-1,9,11,13,-1,-1,-1,-1,-1,-1],"loss_changes":[2.3376286E1,6.581726E0,2.3532715E0,3.51927E0,0E0,0E0,4.6634102E-1,5.27195E-1,3.688473E0,0E0,0E0,0E0,0E0,0E0,0E0],"parents":[2147483647,0,0,1,1,2,2,3,3,6,6,7,7,8,8],"right_children":[2,4,6,8,-1,-1,10,12,14,-1,-1,-1,-1,-1,-1],"split_conditions":[8.765E2,1.583E-1,2.177E-1,2.135E1,-7.807363E-2,1.7636262E-2,1.56E1,1.987E-1,1.444E1,-1.8053308E-2,-1.0697346E-1,1.3024879E-2,1.03082776E-1,7.191079E-2,-6.4991824E-2],"split_indices":[23,27,26,1,0,0,1,28,20,0,0,0,0,0,0],"split_type":[0,0,0,0,0,0,0,0,0,0,0,0,0,0,0],"sum_hessian":[4.125807E1,2.5045574E1,1.6212498E1,2.2746712E1,2.2988632E0,1.5369265E0,1.4675571E1,1.683881E1,5.907902E0,1.0869114E0,1.358866E1,1.0013368E0,1.5837473E1,3.168789E0,2.739113E0],"tree_param":{"num_deleted":"0","num_feature":"30","num_nodes":"15","size_leaf_vector":"1"}},{"base_weights":[3.940626E-4,6.524642E-1,-7.8294516E-1,7.9716027E-1,-2.8605393E-1,-1.5358861E-1,-1.0364421E-1,9.4849163E-1,1.7641094E-1,2.5891054E-2,-8.13395E-2,6.6141695E-2,-7.9297446E-2,1.00143276E-1,9.506479E-3,7.624655E-2,-5.2661788E-2],"categories":[],"categories_nodes":[],"categories_segments":[],"categories_sizes":[],"default_left":[0,0,0,0,0,0,0,0,0,0,0,0,0,0,0,0,0],"id":19,"left_children":[1,3,5,7,9,11,-1,13,15,-1,-1,-1,-1,-1,-1,-1,-1],"loss_changes":[2.078439E1,3.243537E0,2.7898932E0,1.6647997E0,1.274525E0,3.9020698E0,0E0,6.0294724E-1,2.4827056E0,0E0,0E0,0E0,0E0,0E0,0E0,0E0,0E0],"parents":[2147483647,0,0,1,1,2,2,3,3,4,4,5,5,7,7,8,8],"right_children":[2,4,6,8,10,12,-1,14,16,-1,-1,-1,-1,-1,-1,-1,-1],"split_conditions":[5.252E-2,6.988E2,1.146E2,2.987E1,1.954E1,2.548E1,-1.0364421E-1,3.466E0,1.438E1,2.5891054E-2,-8.13395E-2,6.6141695E-2,-7.9297446E-2,1.00143276E-1,9.506479E-3,7.624655E-2,-5.2661788E-2],"split_indices":[7,3,22,21,1,21,0,12,20,0,0,0,0,0,0,0,0],"split_type":[0,0,0,0,0,0,0,0,0,0,0,0,0,0,0,0,0],"sum_hessian":[3.8690407E1,2.120551E1,1.7484896E1,1.850337E1,2.7021391E0,5.481604E0,1.2003292E1,1.4452131E1,4.051239E0,1.5791949E0,1.1229444E0,2.3946984E0,3.0869057E0,1.3444684E1,1.0074476E0,2.1633208E0,1.887918E0],"tree_param":{"num_deleted":"0","num_feature":"30","num_nodes":"17","size_leaf_vector":"1"}},{"base_weights":[-4.3495168E-4,5.654857E-1,-8.550521E-1,7.939395E-1,-4.260884E-1,3.207229E-2,-9.9444896E-2,9.5364696E-1,1.6083841E-1,3.3843733E-2,-7.739221E-2,3.594783E-2,-3.1035496E-2,1.0046667E-1,1.34134935E-2,7.503494E-2,-5.0599705E-2],"categories":[],"categories_nodes":[],"categories_segments":[],"categories_sizes":[],"default_left":[0,0,0,0,0,0,0,0,0,0,0,0,0,0,0,0,0],"id":20,"left_children":[1,3,5,7,9,11,-1,13,15,-1,-1,-1,-1,-1,-1,-1,-1],"loss_changes":[1.8506102E1,5.553101E0,1.9169416E0,1.7737017E0,1.5813026E0,4.5224884E-1,0E0,4.9311447E-1,2.3618133E0,0E0,0E0,0E0,0E0,0E0,0E0,0E0,0E0],"parents":[2147483647,0,0,1,1,2,2,3,3,4,4,5,5,7,7,8,8],"right_children":[2,4,6,8,10,12,-1,14,16,-1,-1,-1,-1,-1,-1,-1,-1],"split_conditions":[1.424E-1,6.988E2,1.534E1,2.987E1,1.83E1,1.564E-1,-9.9444896E-2,1.978E0,1.935E-1,3.3843733E-2,-7.739221E-2,3.594783E-2,-3.1035496E-2,1.0046667E-1,1.34134935E-2,7.503494E-2,-5.0599705E-2],"split_indices":[27,3,20,21,1,27,0,11,26,0,0,0,0,0,0,0,0],"split_type":[0,0,0,0,0,0,0,0,0,0,0,0,0,0,0,0,0],"sum_hessian":[3.626403E1,2.2020529E1,1.4243502E1,1.8059113E1,3.9614158E0,2.0387535E0,1.2204748E1,1.4016874E1,4.042239E0,1.247178E0,2.7142377E0,1.016781E0,1.0219727E0,1.2982688E1,1.0341865E0,2.07904E0,1.9631991E0],"tree_param":{"num_deleted":"0","num_feature":"30","num_nodes":"17","size_leaf_vector":"1"}},{"base_weights":[-8.793955E-5,5.708964E-1,-8.0256623E-1,8.3790714E-1,-8.335734E-2,-9.1570294E-1,3.1639278E-2,-1.7689357E-2,9.341889E-1,5.174763E-1,-6.651859E-1,-3.183291E-3,-1.0026621E-1,9.931201E-2,2.4093254E-2,7.732906E-2,1.4883168E-3,-9.6531704E-2,-2.7488064E-4],"categories":[],"categories_nodes":[],"categories_segments":[],"categories_sizes":[],"default_left":[0,0,0,0,0,0,0,0,0,0,0,0,0,0,0,0,0,0,0],"id":21,"left_children":[1,3,5,7,9,11,-1,-1,13,15,17,-1,-1,-1,-1,-1,-1,-1,-1],"loss_changes":[1.6515278E1,3.7487764E0,2.186656E0,1.6353722E0,2.795904E0,1.033761E0,0E0,0E0,3.286667E-1,5.044049E-1,7.927172E-1,0E0,0E0,0E0,0E0,0E0,0E0,0E0,0E0],"parents":[2147483647,0,0,1,1,2,2,3,3,4,4,5,5,8,8,9,9,10,10],"right_children":[2,4,6,8,10,12,-1,-1,14,16,18,-1,-1,-1,-1,-1,-1,-1,-1],"split_conditions":[5.596E-2,1.563E1,1.148E-2,1.987E-1,1.963E1,1.929E1,3.1639278E-2,-1.7689357E-2,3.337E1,2.177E-1,1.13E-2,-3.183291E-3,-1.0026621E-1,9.931201E-2,2.4093254E-2,7.732906E-2,1.4883168E-3,-9.6531704E-2,-2.7488064E-4],"split_indices":[7,20,19,28,1,21,0,0,21,26,17,0,0,0,0,0,0,0,0],"split_type":[0,0,0,0,0,0,0,0,0,0,0,0,0,0,0,0,0,0,0],"sum_hessian":[3.4043663E1,2.0059433E1,1.398423E1,1.4046245E1,6.013189E0,1.2865101E1,1.1191291E0,1.1446364E0,1.2901608E1,3.0126922E0,3.0004969E0,1.2747135E0,1.1590387E1,1.1492159E1,1.4094499E0,1.6395687E0,1.3731235E0,1.7502764E0,1.2502203E0],"tree_param":{"num_deleted":"0","num_feature":"30","num_nodes":"19","size_leaf_vector":"1"}},{"base_weights":[5.067046E-4,5.2953774E-1,-8.157499E-1,6.877914E-1,-6.894863E-2,1.9388882E-2,-1.0018587E-1,9.310814E-1,4.4111937E-2,5.6445427E-2,-6.341833E-2,1.429866E-2,9.8549634E-2,6.358223E-2,-5.5652834E-2],"categories":[],"categories_nodes":[],"categories_segments":[],"categories_sizes":[],"default_left":[0,0,0,0,0,0,0,0,0,0,0,0,0,0,0],"id":22,"left_children":[1,3,5,7,-1,9,-1,11,13,-1,-1,-1,-1,-1,-1],"loss_changes":[1.4701375E1,4.459105E0,2.100317E0,2.9004087E0,0E0,1.5766084E0,0E0,4.4151592E-1,2.5580308E0,0E0,0E0,0E0,0E0,0E0,0E0],"parents":[2147483647,0,0,1,1,2,2,3,3,5,5,7,7,8,8],"right_children":[2,4,6,8,-1,10,-1,12,14,-1,-1,-1,-1,-1,-1],"split_conditions":[8.765E2,1.583E-1,7.16E-2,2.135E1,-6.894863E-2,1.954E1,-1.0018587E-1,2.048E-1,1.444E1,5.6445427E-2,-6.341833E-2,1.429866E-2,9.8549634E-2,6.358223E-2,-5.5652834E-2],"split_indices":[23,27,6,1,0,1,0,28,20,0,0,0,0,0,0],"split_type":[0,0,0,0,0,0,0,0,0,0,0,0,0,0,0],"sum_hessian":[3.204441E1,1.9656155E1,1.2388258E1,1.778331E1,1.8728436E0,2.4208467E0,9.967411E0,1.2581436E1,5.2018743E0,1.3943465E0,1.0265002E0,1.0468957E0,1.153454E1,2.5909102E0,2.610964E0],"tree_param":{"num_deleted":"0","num_feature":"30","num_nodes":"15","size_leaf_vector":"1"}},{"base_weights":[-1.0726734E-3,5.1565164E-1,-7.984189E-1,7.409091E-1,-3.8333398E-1,2.5486334E-3,-9.4414306E-1,9.096813E-1,1.4569378E-1,3.071717E-2,-7.029683E-2,-2.8909354E-2,-9.849046E-2,9.702301E-2,1.2752727E-2,7.063113E-2,-4.479378E-2],"categories":[],"categories_nodes":[],"categories_segments":[],"categories_sizes":[],"default_left":[0,0,0,0,0,0,0,0,0,0,0,0,0,0,0,0,0],"id":23,"left_children":[1,3,5,7,9,-1,11,13,15,-1,-1,-1,-1,-1,-1,-1,-1],"loss_changes":[1.3216884E1,4.225968E0,1.5385103E0,1.465395E0,1.2222192E0,0E0,2.1543503E-3,4.5414448E-1,1.8820977E0,0E0,0E0,0E0,0E0,0E0,0E0,0E0,0E0],"parents":[2147483647,0,0,1,1,2,2,3,3,4,4,6,6,7,7,8,8],"right_children":[2,4,6,8,10,-1,12,14,16,-1,-1,-1,-1,-1,-1,-1,-1],"split_conditions":[1.424E-1,6.988E2,1.534E1,2.987E1,1.83E1,2.5486334E-3,2.506E1,1.931E0,1.935E-1,3.071717E-2,-7.029683E-2,-2.8909354E-2,-9.849046E-2,9.702301E-2,1.2752727E-2,7.063113E-2,-4.479378E-2],"split_indices":[27,3,20,21,1,0,13,11,26,0,0,0,0,0,0,0,0],"split_type":[0,0,0,0,0,0,0,0,0,0,0,0,0,0,0,0,0],"sum_hessian":[3.007991E1,1.846613E1,1.1613781E1,1.49067955E1,3.5593336E0,1.8694221E0,9.744358E0,1.1202128E1,3.7046664E0,1.1386023E0,2.4207313E0,1.0448961E0,8.699462E0,1.0174066E1,1.0280629E0,1.8076924E0,1.8969741E0],"tree_param":{"num_deleted":"0","num_feature":"30","num_nodes":"17","size_leaf_vector":"1"}},{"base_weights":[-1.7352158E-3,5.175322E-1,-7.507677E-1,7.097449E-1,-2.8309894E-1,-8.696335E-1,2.9536733E-2,-3.861462E-2,8.3097905E-1,3.873094E-2,-7.1411364E-2,-1.5318298E-3,-9.602941E-2,9.0492055E-2,9.210123E-3],"categories":[],"categories_nodes":[],"categories_segments":[],"categories_sizes":[],"default_left":[0,0,0,0,0,0,0,0,0,0,0,0,0,0,0],"id":24,"left_children":[1,3,5,7,9,11,-1,-1,13,-1,-1,-1,-1,-1,-1],"loss_changes":[1.18006525E1,2.958681E0,1.8013859E0,2.2786903E0,1.4856206E0,8.6879635E-1,0E0,0E0,6.588783E-1,0E0,0E0,0E0,0E0,0E0,0E0],"parents":[2147483647,0,0,1,1,2,2,3,3,4,4,5,5,8,8],"right_children":[2,4,6,8,10,12,-1,-1,14,-1,-1,-1,-1,-1,-1],"split_conditions":[5.596E-2,3.444E1,1.148E-2,3.418E-3,1.048E-1,1.929E1,2.9536733E-2,-3.861462E-2,3.321E1,3.873094E-2,-7.1411364E-2,-1.5318298E-3,-9.602941E-2,9.0492055E-2,9.210123E-3],"split_indices":[7,13,19,14,24,21,0,0,21,0,0,0,0,0,0],"split_type":[0,0,0,0,0,0,0,0,0,0,0,0,0,0,0],"sum_hessian":[2.8340942E1,1.692012E1,1.1420822E1,1.3735958E1,3.1841614E0,1.0407052E1,1.0137703E0,1.1505437E0,1.2585415E1,1.2857234E0,1.898438E0,1.1105978E0,9.296454E0,1.1236251E1,1.3491641E0],"tree_param":{"num_deleted":"0","num_feature":"30","num_nodes":"15","size_leaf_vector":"1"}},{"base_weights":[-3.0027241E-3,4.184984E-1,-8.749133E-1,6.502844E-1,-3.909139E-1,-1.5231529E-2,-9.444591E-2,8.994663E-1,-4.5787465E-2,1.8167803E-2,-8.2707725E-2,9.628737E-2,1.1956732E-2,6.751937E-2,-5.9337217E-2],"categories":[],"categories_nodes":[],"categories_segments":[],"categories_sizes":[],"default_left":[0,0,0,0,0,0,0,0,0,0,0,0,0,0,0],"id":25,"left_children":[1,3,5,7,9,-1,-1,11,13,-1,-1,-1,-1,-1,-1],"loss_changes":[1.0577649E1,3.895187E0,3.2744265E-1,2.7230911E0,1.3852106E0,0E0,0E0,4.5033073E-1,2.38554E0,0E0,0E0,0E0,0E0,0E0,0E0],"parents":[2147483647,0,0,1,1,2,2,3,3,4,4,7,7,8,8],"right_children":[2,4,6,8,10,-1,-1,12,14,-1,-1,-1,-1,-1,-1],"split_conditions":[1.515E-1,6.988E2,1.529E1,2.987E1,1.954E1,-1.5231529E-2,-9.444591E-2,1.924E0,1.935E-1,1.8167803E-2,-8.2707725E-2,9.628737E-2,1.1956732E-2,6.751937E-2,-5.9337217E-2],"split_indices":[27,3,20,21,1,0,0,11,26,0,0,0,0,0,0],"split_type":[0,0,0,0,0,0,0,0,0,0,0,0,0,0,0],"sum_hessian":[2.678554E1,1.8407137E1,8.378402E0,1.4462271E1,3.9448664E0,1.0156531E0,7.362749E0,1.0434643E1,4.0276284E0,1.957949E0,1.9869174E0,9.433099E0,1.0015436E0,1.6379588E0,2.3896694E0],"tree_param":{"num_deleted":"0","num_feature":"30","num_nodes":"15","size_leaf_vector":"1"}},{"base_weights":[-4.7689998E-3,6.2555826E-1,-5.560709E-1,7.949787E-1,-2.3236314E-2,-7.890845E-2,-9.40403E-2,1.3335568E-2,8.5097694E-1,5.3917927E-1,-6.4319545E-1,9.290514E-2,1.810376E-2,7.454918E-2,-2.819917E-3,-8.563953E-2,3.5024618E-3],"categories":[],"categories_nodes":[],"categories_segments":[],"categories_sizes":[],"default_left":[0,0,0,0,0,0,0,0,0,0,0,0,0,0,0,0,0],"id":26,"left_children":[1,3,5,7,-1,9,-1,-1,11,13,15,-1,-1,-1,-1,-1,-1],"loss_changes":[9.469333E0,2.0331688E0,2.5907168E0,2.8836727E-1,0E0,2.988603E0,0E0,0E0,3.4513187E-1,5.0784945E-1,6.684693E-1,0E0,0E0,0E0,0E0,0E0,0E0],"parents":[2147483647,0,0,1,1,2,2,3,3,5,5,8,8,9,9,10,10],"right_children":[2,4,6,8,-1,10,-1,-1,12,14,16,-1,-1,-1,-1,-1,-1],"split_conditions":[1.112E-1,1.499E1,1.162E2,2.107E-1,-2.3236314E-2,2.737E1,-9.40403E-2,1.3335568E-2,3.337E1,3.109E-1,1.879E-2,9.290514E-2,1.810376E-2,7.454918E-2,-2.819917E-3,-8.563953E-2,3.5024618E-3],"split_indices":[27,0,22,28,0,21,0,0,21,28,18,0,0,0,0,0,0],"split_type":[0,0,0,0,0,0,0,0,0,0,0,0,0,0,0,0,0],"sum_hessian":[2.5248806E1,1.1717262E1,1.3531544E1,9.84622E0,1.8710428E0,6.574443E0,6.957101E0,1.032195E0,8.814025E0,3.1588802E0,3.4155624E0,7.5476546E0,1.26637E0,2.0863204E0,1.07256E0,2.3987887E0,1.0167738E0],"tree_param":{"num_deleted":"0","num_feature":"30","num_nodes":"17","size_leaf_vector":"1"}},{"base_weights":[-4.5522023E-3,3.896838E-1,-8.421734E-1,6.1543447E-1,-3.5678118E-1,-1.6946493E-2,-9.1479205E-2,8.656774E-1,-3.2093596E-2,1.884277E-2,-7.916541E-2,9.358597E-2,1.2185632E-2,6.520777E-2,-5.377503E-2],"categories":[],"categories_nodes":[],"categories_segments":[],"categories_sizes":[],"default_left":[0,0,0,0,0,0,0,0,0,0,0,0,0,0,0],"id":27,"left_children":[1,3,5,7,9,-1,-1,11,13,-1,-1,-1,-1,-1,-1],"loss_changes":[8.539423E0,3.1840324E0,2.4918318E-1,2.275886E0,1.2677543E0,0E0,0E0,4.1020346E-1,2.02211E0,0E0,0E0,0E0,0E0,0E0,0E0],"parents":[2147483647,0,0,1,1,2,2,3,3,4,4,7,7,8,8],"right_children":[2,4,6,8,10,-1,-1,12,14,-1,-1,-1,-1,-1,-1],"split_conditions":[1.515E-1,6.988E2,8.509E1,2.987E1,1.954E1,-1.6946493E-2,-9.1479205E-2,1.911E0,8.75E-2,1.884277E-2,-7.916541E-2,9.358597E-2,1.2185632E-2,6.520777E-2,-5.377503E-2],"split_indices":[27,3,2,21,1,0,0,11,27,0,0,0,0,0,0],"split_type":[0,0,0,0,0,0,0,0,0,0,0,0,0,0,0],"sum_hessian":[2.3865936E1,1.6591656E1,7.27428E0,1.2873812E1,3.7178447E0,1.0335492E0,6.240731E0,9.0424E0,3.8314111E0,1.9011015E0,1.8167431E0,8.026858E0,1.0155425E0,1.505224E0,2.3261871E0],"tree_param":{"num_deleted":"0","num_feature":"30","num_nodes":"15","size_leaf_vector":"1"}},{"base_weights":[-6.241512E-3,4.8904443E-1,-6.381198E-1,-7.4228056E-2,7.404166E-1,6.1537497E-2,-8.473125E-1,6.980373E-2,-7.829424E-1,8.8664305E-1,-9.605959E-3,5.715629E-2,-5.5324372E-2,-1.8805424E-2,-9.182802E-2,-1.3673164E-2,-1.05718635E-1,3.209574E-2,9.524916E-2],"categories":[],"categories_nodes":[],"categories_segments":[],"categories_sizes":[],"default_left":[0,0,0,0,0,0,0,0,0,0,0,0,0,0,0,0,0,0,0],"id":28,"left_children":[1,3,5,7,9,11,13,-1,15,17,-1,-1,-1,-1,-1,-1,-1,-1,-1],"loss_changes":[7.6862636E0,2.005401E0,1.6310387E0,3.3703656E0,1.2613182E0,1.3870913E0,2.1901798E-1,0E0,4.1577363E-1,2.8162003E-3,0E0,0E0,0E0,0E0,0E0,0E0,0E0,0E0,0E0],"parents":[2147483647,0,0,1,1,2,2,3,3,4,4,5,5,6,6,8,8,9,9],"right_children":[2,4,6,8,10,12,14,-1,16,18,-1,-1,-1,-1,-1,-1,-1,-1,-1],"split_conditions":[5.074E-2,1.203E-2,2.384E1,1.246E-2,3.215E-1,1.583E-1,9.943E1,6.980373E-2,2.097E1,1.466E-2,-9.605959E-3,5.715629E-2,-5.5324372E-2,-1.8805424E-2,-9.182802E-2,-1.3673164E-2,-1.05718635E-1,3.209574E-2,9.524916E-2],"split_indices":[7,15,21,16,28,27,22,0,1,18,0,0,0,0,0,0,0,0,0],"split_type":[0,0,0,0,0,0,0,0,0,0,0,0,0,0,0,0,0,0,0],"sum_hessian":[2.2562706E1,1.2775173E1,9.787533E0,4.159442E0,8.615731E0,2.4152894E0,7.3722434E0,1.9976867E0,2.1617553E0,7.2826576E0,1.3330734E0,1.3585383E0,1.0567513E0,1.0711929E0,6.3010507E0,1.0905739E0,1.0711815E0,1.3718314E0,5.910826E0],"tree_param":{"num_deleted":"0","num_feature":"30","num_nodes":"19","size_leaf_vector":"1"}},{"base_weights":[-7.5899865E-3,6.856132E-1,-4.4068155E-1,9.065205E-2,-2.2715783E-2,4.2523816E-1,-6.68766E-1,6.5262124E-2,-7.01496E-3,1.8929575E-2,-7.886604E-1,7.2485134E-3,-8.893737E-2],"categories":[],"categories_nodes":[],"categories_segments":[],"categories_sizes":[],"default_left":[0,0,0,0,0,0,0,0,0,0,0,0,0],"id":29,"left_children":[1,3,5,-1,-1,7,9,-1,-1,-1,11,-1,-1],"loss_changes":[7.0217686E0,2.0202374E0,3.1253517E0,0E0,0E0,4.524501E-1,1.3605785E0,0E0,0E0,0E0,9.7722435E-1,0E0,0E0],"parents":[2147483647,0,0,1,1,2,2,5,5,6,6,10,10],"right_children":[2,4,6,-1,-1,8,10,-1,-1,-1,12,-1,-1],"split_conditions":[2.085E-1,4.276E1,1.449E1,9.065205E-2,-2.2715783E-2,1.068E-1,1.971E1,6.5262124E-2,-7.01496E-3,1.8929575E-2,1.084E-1,7.2485134E-3,-8.893737E-2],"split_indices":[26,13,20,0,0,4,21,0,0,0,24,0,0],"split_type":[0,0,0,0,0,0,0,0,0,0,0,0,0],"sum_hessian":[2.1382324E1,7.997891E0,1.3384433E1,6.4449444E0,1.5529466E0,2.610253E0,1.0774179E1,1.5715272E0,1.038726E0,1.2499148E0,9.524265E0,1.0266047E0,8.49766E0],"tree_param":{"num_deleted":"0","num_feature":"30","num_nodes":"13","size_leaf_vector":"1"}},{"base_weights":[-3.955221E-3,3.5266286E-1,-7.94656E-1,5.8173436E-1,-3.2272106E-1,-1.7076105E-2,-8.712084E-2,8.114422E-1,-4.8648477E-2,2.4466487E-2,-6.3800834E-2,9.0471454E-2,5.328031E-3,-6.2175103E-2,5.832333E-2],"categories":[],"categories_nodes":[],"categories_segments":[],"categories_sizes":[],"default_left":[0,0,0,0,0,0,0,0,0,0,0,0,0,0,0],"id":30,"left_children":[1,3,5,7,9,-1,-1,11,13,-1,-1,-1,-1,-1,-1],"loss_changes":[6.28766E0,2.566442E0,1.8218517E-1,1.7536459E0,9.677642E-1,0E0,0E0,5.693445E-1,1.849192E0,0E0,0E0,0E0,0E0,0E0,0E0],"parents":[2147483647,0,0,1,1,2,2,3,3,4,4,7,7,8,8],"right_children":[2,4,6,8,10,-1,-1,12,14,-1,-1,-1,-1,-1,-1],"split_conditions":[1.515E-1,3.444E1,1.549E1,3.012E1,1.048E-1,-1.7076105E-2,-8.712084E-2,9.864E1,2.35E1,2.4466487E-2,-6.3800834E-2,9.0471454E-2,5.328031E-3,-6.2175103E-2,5.832333E-2],"split_indices":[27,13,20,21,24,0,0,2,1,0,0,0,0,0,0],"split_type":[0,0,0,0,0,0,0,0,0,0,0,0,0,0,0],"sum_hessian":[2.0304539E1,1.4375125E1,5.9294133E0,1.0837878E1,3.5372467E0,1.0011097E0,4.9283037E0,7.7328506E0,3.1050277E0,1.3434998E0,2.193747E0,6.7136135E0,1.0192369E0,1.636653E0,1.4683747E0],"tree_param":{"num_deleted":"0","num_feature":"30","num_nodes":"15","size_leaf_vector":"1"}},{"base_weights":[-5.909517E-3,6.5092665E-1,-4.082663E-1,8.827737E-2,-2.0509172E-2,8.8286325E-3,-8.95445E-2,5.7414913E-1,-5.6543434E-1,7.6495774E-2,-4.6003014E-3,-8.3443366E-2,9.90099E-3],"categories":[],"categories_nodes":[],"categories_segments":[],"categories_sizes":[],"default_left":[0,0,0,0,0,0,0,0,0,0,0,0,0],"id":31,"left_children":[1,3,5,-1,-1,7,-1,9,11,-1,-1,-1,-1],"loss_changes":[5.6286736E0,1.787416E0,2.6898253E0,0E0,0E0,2.9545462E0,0E0,5.769563E-1,8.9094615E-1,0E0,0E0,0E0,0E0],"parents":[2147483647,0,0,1,1,2,2,5,5,7,7,8,8],"right_children":[2,4,6,-1,-1,8,-1,10,12,-1,-1,-1,-1],"split_conditions":[2.085E-1,4.276E1,9.67E2,8.827737E-2,-2.0509172E-2,2.737E1,-8.95445E-2,3.124E-1,1.906E-2,7.6495774E-2,-4.6003014E-3,-8.3443366E-2,9.90099E-3],"split_indices":[26,13,23,0,0,21,0,28,18,0,0,0,0],"split_type":[0,0,0,0,0,0,0,0,0,0,0,0,0],"sum_hessian":[1.9292383E1,7.0939407E0,1.2198443E1,5.557478E0,1.5364627E0,7.100916E0,5.0975275E0,3.5784187E0,3.5224972E0,2.5579026E0,1.0205162E0,2.3252754E0,1.1972218E0],"tree_param":{"num_deleted":"0","num_feature":"30","num_nodes":"13","size_leaf_vector":"1"}},{"base_weights":[-6.539121E-3,3.9663342E-1,-6.363436E-1,7.611927E-1,-7.1054273E-3,3.0663149E-3,-8.500611E-2,1.3680398E-2,8.545404E-2,5.3054464E-1,-4.9892664E-1,7.005493E-2,1.0240046E-2,-9.584576E-2,1.1037354E-2],"categories":[],"categories_nodes":[],"categories_segments":[],"categories_sizes":[],"default_left":[0,0,0,0,0,0,0,0,0,0,0,0,0,0,0],"id":32,"left_children":[1,3,5,7,9,-1,-1,-1,-1,11,13,-1,-1,-1,-1],"loss_changes":[5.1457186E0,1.825462E0,1.1530061E0,2.6237798E-1,2.0782175E0,0E0,0E0,0E0,0E0,2.020222E-1,1.2529566E0,0E0,0E0,0E0,0E0],"parents":[2147483647,0,0,1,1,2,2,3,3,4,4,9,9,10,10],"right_children":[2,4,6,8,10,-1,-1,-1,-1,12,14,-1,-1,-1,-1],"split_conditions":[5.596E-2,6.536E2,2.384E1,8.298E-2,1.963E1,3.0663149E-3,-8.500611E-2,1.3680398E-2,8.545404E-2,2.177E-1,7.175E-2,7.005493E-2,1.0240046E-2,-9.584576E-2,1.1037354E-2],"split_indices":[7,23,21,25,1,0,0,0,0,26,5,0,0,0,0],"split_type":[0,0,0,0,0,0,0,0,0,0,0,0,0,0,0],"sum_hessian":[1.8271133E1,1.1365608E1,6.9055243E0,5.507346E0,5.8582625E0,1.8835471E0,5.021977E0,1.0369403E0,4.4704056E0,2.7611206E0,3.097142E0,1.5209469E0,1.2401736E0,1.4388912E0,1.6582507E0],"tree_param":{"num_deleted":"0","num_feature":"30","num_nodes":"15","size_leaf_vector":"1"}},{"base_weights":[-5.3734863E-3,3.2055652E-1,-7.515142E-1,5.4076874E-1,-2.9044825E-1,-8.403226E-2,-1.6071655E-2,7.7184033E-1,-4.161326E-2,2.3642538E-2,-5.921352E-2,8.74058E-2,7.1613104E-3,-5.479395E-2,5.4152425E-2],"categories":[],"categories_nodes":[],"categories_segments":[],"categories_sizes":[],"default_left":[0,0,0,0,0,0,0,0,0,0,0,0,0,0,0],"id":33,"left_children":[1,3,5,7,9,-1,-1,11,13,-1,-1,-1,-1,-1,-1],"loss_changes":[4.7322626E0,1.9808666E0,1.7523003E-1,1.4199793E0,8.1420183E-1,0E0,0E0,4.695511E-1,1.4418565E0,0E0,0E0,0E0,0E0,0E0,0E0],"parents":[2147483647,0,0,1,1,2,2,3,3,4,4,7,7,8,8],"right_children":[2,4,6,8,10,-1,-1,12,14,-1,-1,-1,-1,-1,-1],"split_conditions":[1.515E-1,3.444E1,6.43E-2,3.012E1,1.048E-1,-8.403226E-2,-1.6071655E-2,3.157E-1,2.35E1,2.3642538E-2,-5.921352E-2,8.74058E-2,7.1613104E-3,-5.479395E-2,5.4152425E-2],"split_indices":[27,13,16,21,24,0,0,28,1,0,0,0,0,0,0],"split_type":[0,0,0,0,0,0,0,0,0,0,0,0,0,0,0],"sum_hessian":[1.7468548E1,1.2554749E1,4.913799E0,9.3131485E0,3.2416003E0,3.9045205E0,1.0092783E0,6.434727E0,2.878421E0,1.2590631E0,1.9825372E0,5.3984275E0,1.0363001E0,1.5729879E0,1.3054332E0],"tree_param":{"num_deleted":"0","num_feature":"30","num_nodes":"15","size_leaf_vector":"1"}},{"base_weights":[-7.0871934E-3,3.6139238E-1,-6.278018E-1,6.170099E-1,-1.6889636E-1,6.5756426E-3,-8.556675E-2,-2.3703061E-2,7.826966E-1,5.4688938E-2,-5.540185E-1,1.5059801E-2,8.69787E-2,1.0804945E-2,-8.845304E-2],"categories":[],"categories_nodes":[],"categories_segments":[],"categories_sizes":[],"default_left":[0,0,0,0,0,0,0,0,0,0,0,0,0,0,0],"id":34,"left_children":[1,3,5,7,9,-1,-1,-1,11,-1,13,-1,-1,-1,-1],"loss_changes":[4.2712417E0,1.6942737E0,1.1549733E0,1.3359363E0,1.5711601E0,0E0,0E0,0E0,2.5664043E-1,0E0,8.5878897E-1,0E0,0E0,0E0,0E0],"parents":[2147483647,0,0,1,1,2,2,3,3,4,4,8,8,10,10],"right_children":[2,4,6,8,10,-1,-1,-1,12,-1,14,-1,-1,-1,-1],"split_conditions":[8.765E2,1.38E-1,7.16E-2,5.592E-2,8.716E1,6.5756426E-3,-8.556675E-2,-2.3703061E-2,1.03E-2,5.4688938E-2,2.721E1,1.5059801E-2,8.69787E-2,1.0804945E-2,-8.845304E-2],"split_indices":[23,24,6,9,22,0,0,0,15,0,21,0,0,0,0],"split_type":[0,0,0,0,0,0,0,0,0,0,0,0,0,0,0],"sum_hessian":[1.668253E1,1.0730362E1,5.952167E0,7.1299458E0,3.600416E0,1.6478884E0,4.3042784E0,1.08852E0,6.0414257E0,1.112566E0,2.48785E0,1.0620828E0,4.979343E0,1.0525364E0,1.4353135E0],"tree_param":{"num_deleted":"0","num_feature":"30","num_nodes":"15","size_leaf_vector":"1"}},{"base_weights":[-8.08655E-3,5.874208E-1,-3.7304565E-1,8.4002174E-2,-2.0074738E-2,6.3493284E-3,-8.4595054E-2,6.2452476E-2,-4.217012E-1,1.4374527E-2,-6.67784E-2],"categories":[],"categories_nodes":[],"categories_segments":[],"categories_sizes":[],"default_left":[0,0,0,0,0,0,0,0,0,0,0],"id":35,"left_children":[1,3,5,-1,-1,7,-1,-1,9,-1,-1],"loss_changes":[3.8892198E0,1.5234585E0,1.99362E0,0E0,0E0,2.153024E0,0E0,0E0,7.6618433E-1,0E0,0E0],"parents":[2147483647,0,0,1,1,2,2,5,5,8,8],"right_children":[2,4,6,-1,-1,8,-1,-1,10,-1,-1],"split_conditions":[2.085E-1,4.276E1,9.67E2,8.4002174E-2,-2.0074738E-2,2.558E1,-8.4595054E-2,6.2452476E-2,8.946E-2,1.4374527E-2,-6.67784E-2],"split_indices":[26,13,23,0,0,21,0,0,4,0,0],"split_type":[0,0,0,0,0,0,0,0,0,0,0],"sum_hessian":[1.58867E1,5.8050275E0,1.0081673E1,4.34629E0,1.4587374E0,6.1412983E0,3.9403744E0,2.3248434E0,3.8164546E0,1.2833812E0,2.5330734E0],"tree_param":{"num_deleted":"0","num_feature":"30","num_nodes":"11","size_leaf_vector":"1"}},{"base_weights":[-8.135933E-3,2.6373765E-1,-7.750317E-2,5.84019E-1,-1.8055986E-1,7.3763406E-1,-1.0769021E-2,5.21388E-2,-5.759578E-1,8.390564E-2,1.0298122E-2,-8.8786386E-2,-1.48885995E-2],"categories":[],"categories_nodes":[],"categories_segments":[],"categories_sizes":[],"default_left":[0,0,0,0,0,0,0,0,0,0,0,0,0],"id":36,"left_children":[1,3,-1,5,7,9,-1,-1,11,-1,-1,-1,-1],"loss_changes":[3.5600579E0,1.9024374E0,0E0,8.842671E-1,1.980511E0,3.2074165E-1,0E0,0E0,4.46936E-1,0E0,0E0,0E0,0E0],"parents":[2147483647,0,0,1,1,3,3,4,4,5,5,8,8],"right_children":[2,4,-1,6,8,10,-1,-1,12,-1,-1,-1,-1],"split_conditions":[1.583E-1,2.02E1,-7.750317E-2,9.67E2,6.536E2,1.743E0,-1.0769021E-2,5.21388E-2,7.175E-2,8.390564E-2,1.0298122E-2,-8.8786386E-2,-1.48885995E-2],"split_indices":[27,1,0,23,23,11,0,0,5,0,0,0,0],"split_type":[0,0,0,0,0,0,0,0,0,0,0,0,0],"sum_hessian":[1.5094359E1,1.1628142E1,3.4662168E0,6.574382E0,5.0537605E0,5.3253355E0,1.2490464E0,1.706168E0,3.3475924E0,4.3138747E0,1.011461E0,1.311095E0,2.0364974E0],"tree_param":{"num_deleted":"0","num_feature":"30","num_nodes":"13","size_leaf_vector":"1"}},{"base_weights":[-1.0247605E-2,5.59459E-1,-3.5697773E-1,8.161135E-2,-1.7983122E-2,2.5132452E-3,-8.192635E-2,5.00205E-1,-4.745971E-1,6.779568E-2,1.37445E-3,5.2938657E-3,-7.843458E-2],"categories":[],"categories_nodes":[],"categories_segments":[],"categories_sizes":[],"default_left":[0,0,0,0,0,0,0,0,0,0,0,0,0],"id":37,"left_children":[1,3,5,-1,-1,7,-1,9,11,-1,-1,-1,-1],"loss_changes":[3.2519612E0,1.3299234E0,1.6998473E0,0E0,0E0,1.8387725E0,0E0,3.1819654E-1,6.879959E-1,0E0,0E0,0E0,0E0],"parents":[2147483647,0,0,1,1,2,2,5,5,7,7,8,8],"right_children":[2,4,6,-1,-1,8,-1,10,12,-1,-1,-1,-1],"split_conditions":[2.085E-1,4.276E1,9.67E2,8.161135E-2,-1.7983122E-2,2.737E1,-8.192635E-2,1.465E-1,1.407E-1,6.779568E-2,1.37445E-3,5.2938657E-3,-7.843458E-2],"split_indices":[26,13,23,0,0,21,0,27,24,0,0,0,0],"split_type":[0,0,0,0,0,0,0,0,0,0,0,0,0],"sum_hessian":[1.4451721E1,5.2356243E0,9.216097E0,3.80927E0,1.4263543E0,5.743948E0,3.4721487E0,2.7876453E0,2.9563026E0,1.7533295E0,1.0343157E0,1.4003854E0,1.5559174E0],"tree_param":{"num_deleted":"0","num_feature":"30","num_nodes":"13","size_leaf_vector":"1"}},{"base_weights":[-1.1006147E-2,2.4176535E-1,-7.4024126E-2,5.5623955E-1,-1.7460066E-1,7.0209706E-1,-7.790019E-3,4.9619757E-2,-5.4327816E-1,8.082319E-2,1.0320616E-2,-8.743988E-2,-1.4930911E-2],"categories":[],"categories_nodes":[],"categories_segments":[],"categories_sizes":[],"default_left":[0,0,0,0,0,0,0,0,0,0,0,0,0],"id":38,"left_children":[1,3,-1,5,7,9,-1,-1,11,-1,-1,-1,-1],"loss_changes":[2.8986106E0,1.6304177E0,0E0,6.938584E-1,1.70394E0,2.8003955E-1,0E0,0E0,4.199717E-1,0E0,0E0,0E0,0E0],"parents":[2147483647,0,0,1,1,3,3,4,4,5,5,8,8],"right_children":[2,4,-1,6,8,10,-1,-1,12,-1,-1,-1,-1],"split_conditions":[1.583E-1,2.02E1,-7.4024126E-2,9.67E2,6.536E2,1.687E0,-7.790019E-3,4.9619757E-2,6.678E-2,8.082319E-2,1.0320616E-2,-8.743988E-2,-1.4930911E-2],"split_indices":[27,1,0,23,23,11,0,0,5,0,0,0,0],"split_type":[0,0,0,0,0,0,0,0,0,0,0,0,0],"sum_hessian":[1.3754234E1,1.0710254E1,3.0439801E0,5.9103374E0,4.7999167E0,4.717994E0,1.1923434E0,1.5797398E0,3.2201767E0,3.7108188E0,1.0071752E0,1.0870659E0,2.133111E0],"tree_param":{"num_deleted":"0","num_feature":"30","num_nodes":"13","size_leaf_vector":"1"}},{"base_weights":[-1.3042155E-2,5.3267777E-1,-3.430237E-1,7.918001E-2,-1.6092634E-2,4.2617723E-2,-5.1889795E-1,4.3616276E-3,-6.79334E-1,-1.4993991E-2,-8.26493E-2],"categories":[],"categories_nodes":[],"categories_segments":[],"categories_sizes":[],"default_left":[0,0,0,0,0,0,0,0,0,0,0],"id":39,"left_children":[1,3,5,-1,-1,-1,7,-1,9,-1,-1],"loss_changes":[2.7422485E0,1.160433E0,1.5017074E0,0E0,0E0,0E0,7.6561975E-1,0E0,3.751185E-1,0E0,0E0],"parents":[2147483647,0,0,1,1,2,2,6,6,8,8],"right_children":[2,4,6,-1,-1,-1,8,-1,10,-1,-1],"split_conditions":[2.085E-1,4.276E1,9.163E1,7.918001E-2,-1.6092634E-2,4.2617723E-2,2.384E1,4.3616276E-3,8.946E-2,-1.4993991E-2,-8.26493E-2],"split_indices":[26,13,22,0,0,0,21,0,4,0,0],"split_type":[0,0,0,0,0,0,0,0,0,0,0],"sum_hessian":[1.3213476E1,4.7476306E0,8.465845E0,3.3533025E0,1.3943281E0,1.3106062E0,7.155239E0,1.7494673E0,5.405772E0,1.6149613E0,3.7908108E0],"tree_param":{"num_deleted":"0","num_feature":"30","num_nodes":"11","size_leaf_vector":"1"}},{"base_weights":[-1.11804325E-2,3.0148193E-1,-5.422447E-1,-2.9465255E-1,5.845764E-1,3.9364034E-3,-7.472467E-2,4.2515144E-2,-7.590931E-2,7.56556E-1,-1.5847277E-2,8.367184E-2,2.1696076E-2],"categories":[],"categories_nodes":[],"categories_segments":[],"categories_sizes":[],"default_left":[0,0,0,0,0,0,0,0,0,0,0,0,0],"id":40,"left_children":[1,3,5,7,9,-1,-1,-1,-1,11,-1,-1,-1],"loss_changes":[2.439529E0,1.7367711E0,6.776693E-1,1.5428855E0,9.6595526E-1,0E0,0E0,0E0,0E0,5.8513165E-2,0E0,0E0,0E0],"parents":[2147483647,0,0,1,1,2,2,3,3,4,4,9,9],"right_children":[2,4,6,8,10,-1,-1,-1,-1,12,-1,-1,-1],"split_conditions":[5.596E-2,1.203E-2,2.384E1,1.272E-2,3.215E-1,3.9364034E-3,-7.472467E-2,4.2515144E-2,-7.590931E-2,4.335E-2,-1.5847277E-2,8.367184E-2,2.1696076E-2],"split_indices":[7,15,21,16,28,0,0,0,0,7,0,0,0],"split_type":[0,0,0,0,0,0,0,0,0,0,0,0,0],"sum_hessian":[1.27075405E1,8.270574E0,4.436968E0,2.6498168E0,5.6207566E0,1.366909E0,3.0700586E0,1.0723894E0,1.5774274E0,4.549575E0,1.0711814E0,3.481693E0,1.0678821E0],"tree_param":{"num_deleted":"0","num_feature":"30","num_nodes":"13","size_leaf_vector":"1"}},{"base_weights":[-1.1259608E-2,5.0227565E-1,-3.1897202E-1,7.679894E-2,-1.568208E-2,1.707851E-2,-7.736901E-2,4.830089E-1,-4.2784235E-1,5.9943337E-2,1.0422484E-2,4.859548E-3,-7.134079E-2],"categories":[],"categories_nodes":[],"categories_segments":[],"categories_sizes":[],"default_left":[0,0,0,0,0,0,0,0,0,0,0,0,0],"id":41,"left_children":[1,3,5,-1,-1,7,-1,9,11,-1,-1,-1,-1],"loss_changes":[2.2542133E0,1.0580094E0,1.3728778E0,0E0,0E0,1.4701496E0,0E0,8.953166E-2,5.310016E-1,0E0,0E0,0E0,0E0],"parents":[2147483647,0,0,1,1,2,2,5,5,7,7,8,8],"right_children":[2,4,6,-1,-1,8,-1,10,12,-1,-1,-1,-1],"split_conditions":[2.085E-1,4.276E1,9.67E2,7.679894E-2,-1.568208E-2,2.737E1,-7.736901E-2,5.98E-2,1.407E-1,5.9943337E-2,1.0422484E-2,4.859548E-3,-7.134079E-2],"split_indices":[26,13,23,0,0,21,0,7,24,0,0,0,0],"split_type":[0,0,0,0,0,0,0,0,0,0,0,0,0],"sum_hessian":[1.2251398E1,4.3535514E0,7.8978467E0,2.9849558E0,1.3685956E0,5.0949583E0,2.8028882E0,2.4469037E0,2.6480548E0,1.4260635E0,1.0208402E0,1.303358E0,1.3446968E0],"tree_param":{"num_deleted":"0","num_feature":"30","num_nodes":"13","size_leaf_vector":"1"}},{"base_weights":[-1.14331795E-2,5.103335E-1,-2.9962313E-1,7.296418E-2,-3.4135926E-4,1.4332111E-1,-6.201219E-1,6.231602E-2,-2.0593466E-1,-1.4040093E-2,-8.089523E-2,2.9620338E-2,-5.91632E-2],"categories":[],"categories_nodes":[],"categories_segments":[],"categories_sizes":[],"default_left":[0,0,0,0,0,0,0,0,0,0,0,0,0],"id":42,"left_children":[1,3,5,-1,-1,7,9,-1,11,-1,-1,-1,-1],"loss_changes":[2.066637E0,5.543773E-1,1.3422232E0,0E0,0E0,8.855889E-1,3.6743927E-1,0E0,8.272957E-1,0E0,0E0,0E0,0E0],"parents":[2147483647,0,0,1,1,2,2,5,5,6,6,8,8],"right_children":[2,4,6,-1,-1,8,10,-1,12,-1,-1,-1,-1],"split_conditions":[1.449E1,3.51E-2,1.977E1,7.296418E-2,-3.4135926E-4,2.241E-1,8.946E-2,6.231602E-2,9.67E2,-1.4040093E-2,-8.089523E-2,2.9620338E-2,-5.91632E-2],"split_indices":[20,7,1,0,0,26,4,0,23,0,0,0,0],"split_type":[0,0,0,0,0,0,0,0,0,0,0,0,0],"sum_hessian":[1.1726979E1,3.8983E0,7.828679E0,2.4375317E0,1.4607682E0,3.5186117E0,4.310067E0,1.1518478E0,2.3667638E0,1.7098209E0,2.6002464E0,1.1289802E0,1.2377837E0],"tree_param":{"num_deleted":"0","num_feature":"30","num_nodes":"13","size_leaf_vector":"1"}},{"base_weights":[-9.779392E-3,2.087358E-1,-6.67808E-2,-3.1797698E-1,4.2511326E-1,2.013406E-2,-6.4048596E-2,6.646688E-1,-2.121566E-2,8.1402555E-2,1.2489046E-2],"categories":[],"categories_nodes":[],"categories_segments":[],"categories_sizes":[],"default_left":[0,0,0,0,0,0,0,0,0,0,0],"id":43,"left_children":[1,3,-1,5,7,-1,-1,9,-1,-1,-1],"loss_changes":[1.907053E0,1.2737944E0,0E0,7.120057E-1,1.2874103E0,0E0,0E0,3.5784578E-1,0E0,0E0,0E0],"parents":[2147483647,0,0,1,1,3,3,4,4,7,7],"right_children":[2,4,-1,6,8,-1,-1,10,-1,-1,-1],"split_conditions":[1.583E-1,1.203E-2,-6.67808E-2,2.657E-2,8.765E2,2.013406E-2,-6.4048596E-2,1.357E-1,-2.121566E-2,8.1402555E-2,1.2489046E-2],"split_indices":[27,15,0,7,23,0,0,27,0,0,0],"split_type":[0,0,0,0,0,0,0,0,0,0,0],"sum_hessian":[1.1293392E1,8.990615E0,2.302777E0,2.4812155E0,6.5093994E0,1.094504E0,1.3867114E0,4.699733E0,1.8096665E0,3.283198E0,1.4165349E0],"tree_param":{"num_deleted":"0","num_feature":"30","num_nodes":"11","size_leaf_vector":"1"}},{"base_weights":[-1.1890168E-2,4.6413925E-1,-2.9623917E-1,7.324088E-2,-1.4504922E-2,3.1914916E-2,-4.8471394E-1,-1.3517946E-1,-7.058244E-2,-5.6748796E-2,2.5665153E-2],"categories":[],"categories_nodes":[],"categories_segments":[],"categories_sizes":[],"default_left":[0,0,0,0,0,0,0,0,0,0,0],"id":44,"left_children":[1,3,5,-1,-1,-1,7,9,-1,-1,-1],"loss_changes":[1.7469083E0,8.965579E-1,1.0888467E0,0E0,0E0,0E0,4.1179073E-1,7.859093E-1,0E0,0E0,0E0],"parents":[2147483647,0,0,1,1,2,2,6,6,7,7],"right_children":[2,4,6,-1,-1,-1,8,10,-1,-1,-1],"split_conditions":[2.085E-1,4.276E1,1.449E1,7.324088E-2,-1.4504922E-2,3.1914916E-2,1.353E-1,5.669E-2,-7.058244E-2,-5.6748796E-2,2.5665153E-2],"split_indices":[26,13,20,0,0,0,24,9,0,0,0],"split_type":[0,0,0,0,0,0,0,0,0,0,0],"sum_hessian":[1.08899975E1,3.835945E0,7.054053E0,2.5227337E0,1.3132111E0,1.4913445E0,5.5627084E0,2.7797725E0,2.782936E0,1.1084824E0,1.6712902E0],"tree_param":{"num_deleted":"0","num_feature":"30","num_nodes":"11","size_leaf_vector":"1"}},{"base_weights":[-1.1885631E-2,1.9677871E-1,-6.264489E-2,-3.2645464E-1,3.9300114E-1,1.7575823E-2,-6.571665E-2,6.217681E-1,-3.2564048E-2,8.652162E-3,7.3363215E-2],"categories":[],"categories_nodes":[],"categories_segments":[],"categories_sizes":[],"default_left":[0,0,0,0,0,0,0,0,0,0,0],"id":45,"left_children":[1,3,-1,5,7,-1,-1,9,-1,-1,-1],"loss_changes":[1.6008803E0,1.0895773E0,0E0,6.303468E-1,1.3965157E0,0E0,0E0,2.86968E-1,0E0,0E0,0E0],"parents":[2147483647,0,0,1,1,3,3,4,4,7,7],"right_children":[2,4,-1,6,8,-1,-1,10,-1,-1,-1],"split_conditions":[1.204E2,1.203E-2,-6.264489E-2,2.657E-2,3.215E-1,1.7575823E-2,-6.571665E-2,1.487E-2,-3.2564048E-2,8.652162E-3,7.3363215E-2],"split_indices":[22,15,0,7,28,0,0,18,0,0,0],"split_type":[0,0,0,0,0,0,0,0,0,0,0],"sum_hessian":[1.0522442E1,8.362803E0,2.1596382E0,2.0998335E0,6.26297E0,1.019772E0,1.0800614E0,4.8529267E0,1.4100434E0,1.1454822E0,3.7074447E0],"tree_param":{"num_deleted":"0","num_feature":"30","num_nodes":"11","size_leaf_vector":"1"}},{"base_weights":[-1.6242648E-2,4.438144E-1,-2.8872243E-1,7.089062E-2,-1.3101207E-2,1.8258116E-3,-7.076561E-2,4.4813374E-1,-4.1695583E-1,5.5604935E-2,1.176672E-2,-6.705922E-2,-2.3781334E-3],"categories":[],"categories_nodes":[],"categories_segments":[],"categories_sizes":[],"default_left":[0,0,0,0,0,0,0,0,0,0,0,0,0],"id":46,"left_children":[1,3,5,-1,-1,7,-1,9,11,-1,-1,-1,-1],"loss_changes":[1.5308125E0,7.8716725E-1,9.304119E-1,0E0,0E0,1.2157078E0,0E0,4.679203E-2,3.189172E-1,0E0,0E0,0E0,0E0],"parents":[2147483647,0,0,1,1,2,2,5,5,7,7,8,8],"right_children":[2,4,6,-1,-1,8,-1,10,12,-1,-1,-1,-1],"split_conditions":[2.085E-1,4.276E1,9.67E2,7.089062E-2,-1.3101207E-2,2.737E1,-7.076561E-2,5.596E-2,1.797E-2,5.5604935E-2,1.176672E-2,-6.705922E-2,-2.3781334E-3],"split_indices":[26,13,23,0,0,21,0,7,15,0,0,0,0],"split_type":[0,0,0,0,0,0,0,0,0,0,0,0,0],"sum_hessian":[1.0189497E1,3.5562682E0,6.6332293E0,2.2742183E0,1.28205E0,4.5046825E0,2.1285467E0,2.1467445E0,2.357938E0,1.1037047E0,1.0430397E0,1.0044103E0,1.3535277E0],"tree_param":{"num_deleted":"0","num_feature":"30","num_nodes":"13","size_leaf_vector":"1"}},{"base_weights":[-1.634967E-2,1.8054378E-1,-6.1529715E-2,4.942413E-1,-2.0202248E-1,7.354853E-3,6.609381E-2,3.6786404E-2,-4.750554E-1,-7.1460165E-2,-7.967306E-3],"categories":[],"categories_nodes":[],"categories_segments":[],"categories_sizes":[],"default_left":[0,0,0,0,0,0,0,0,0,0,0],"id":47,"left_children":[1,3,-1,5,7,-1,-1,-1,9,-1,-1],"loss_changes":[1.3885381E0,1.1710048E0,0E0,3.1565917E-1,9.109206E-1,0E0,0E0,0E0,2.8735626E-1,0E0,0E0],"parents":[2147483647,0,0,1,1,3,3,4,4,8,8],"right_children":[2,4,-1,6,8,-1,-1,-1,10,-1,-1],"split_conditions":[1.583E-1,2.02E1,-6.1529715E-2,1.628E-1,6.536E2,7.354853E-3,6.609381E-2,3.6786404E-2,7.175E-2,-7.1460165E-2,-7.967306E-3],"split_indices":[27,1,0,8,23,0,0,0,5,0,0],"split_type":[0,0,0,0,0,0,0,0,0,0,0],"sum_hessian":[9.83238E0,7.925557E0,1.9068227E0,4.1943526E0,3.7312045E0,1.5993314E0,2.5950212E0,1.096084E0,2.6351206E0,1.1381766E0,1.496944E0],"tree_param":{"num_deleted":"0","num_feature":"30","num_nodes":"11","size_leaf_vector":"1"}},{"base_weights":[-1.7963348E-2,2.4411967E-1,-4.5671594E-1,-2.887026E-1,5.3043735E-1,7.882608E-3,-6.62046E-2,1.0044162E-2,-5.6575734E-2,6.7719094E-2,-5.049822E-4],"categories":[],"categories_nodes":[],"categories_segments":[],"categories_sizes":[],"default_left":[0,0,0,0,0,0,0,0,0,0,0],"id":48,"left_children":[1,3,5,7,9,-1,-1,-1,-1,-1,-1],"loss_changes":[1.3257539E0,1.2610822E0,5.247218E-1,4.0032768E-1,4.0235174E-1,0E0,0E0,0E0,0E0,0E0,0E0],"parents":[2147483647,0,0,1,1,2,2,3,3,4,4],"right_children":[2,4,6,8,10,-1,-1,-1,-1,-1,-1],"split_conditions":[5.39E-2,1.203E-2,2.384E1,2.153E1,8.765E2,7.882608E-3,-6.62046E-2,1.0044162E-2,-5.6575734E-2,6.7719094E-2,-5.049822E-4],"split_indices":[7,15,21,1,23,0,0,0,0,0,0],"split_type":[0,0,0,0,0,0,0,0,0,0,0],"sum_hessian":[9.559742E0,6.262516E0,3.2972255E0,2.1860538E0,4.0764623E0,1.0845646E0,2.212661E0,1.1742283E0,1.0118254E0,2.9918904E0,1.0845718E0],"tree_param":{"num_deleted":"0","num_feature":"30","num_nodes":"11","size_leaf_vector":"1"}},{"base_weights":[-2.0169973E-2,4.1582814E-1,-2.7816218E-1,6.7910604E-2,-1.2542396E-2,2.7526904E-2,-4.4977015E-1,1.2298634E-4,-5.706149E-1,-1.37868E-2,-6.964765E-2],"categories":[],"categories_nodes":[],"categories_segments":[],"categories_sizes":[],"default_left":[0,0,0,0,0,0,0,0,0,0,0],"id":49,"left_children":[1,3,5,-1,-1,-1,7,-1,9,-1,-1],"loss_changes":[1.2717763E0,6.8676305E-1,7.9396725E-1,0E0,0E0,0E0,3.1494462E-1,0E0,1.5177286E-1,0E0,0E0],"parents":[2147483647,0,0,1,1,2,2,6,6,8,8],"right_children":[2,4,6,-1,-1,-1,8,-1,10,-1,-1],"split_conditions":[2.085E-1,4.276E1,1.449E1,6.7910604E-2,-1.2542396E-2,2.7526904E-2,2.384E1,1.2298634E-4,8.946E-2,-1.37868E-2,-6.964765E-2],"split_indices":[26,13,20,0,0,0,21,0,4,0,0],"split_type":[0,0,0,0,0,0,0,0,0,0,0],"sum_hessian":[9.277972E0,3.221671E0,6.0563006E0,1.9960502E0,1.2256209E0,1.2904795E0,4.765821E0,1.2163078E0,3.5495133E0,1.2718694E0,2.277644E0],"tree_param":{"num_deleted":"0","num_feature":"30","num_nodes":"11","size_leaf_vector":"1"}}]},"name":"gbtree"},"learner_model_param":{"base_score":"6.2857145E-1","boost_from_average":"1","num_class":"0","num_feature":"30","num_target":"1"},"objective":{"name":"binary:logistic","reg_loss_param":{"scale_pos_weight":"1"}}},"version":[3,0,5]}